%YAML:1.0
---
opencv_ml_em:
   format: 3
   training_params:
      nclusters: 5
      cov_mat_type: generic
      epsilon: 1.0000000000000000e-02
   weights: !!opencv-matrix
      rows: 1
      cols: 5
      dt: d
      data: [ 3.4359752034549818e-01, 1.1654374836521642e-01,
          2.2599263438483738e-01, 9.6296463021641021e-02,
          2.1756963387962511e-01 ]
   means: !!opencv-matrix
      rows: 5
      cols: 3
      dt: d
      data: [ 2.6720742355422193e+01, 4.7061159495712914e+01,
          9.9049814592053053e+01, 1.7613166859222822e+01,
          1.2031167073877369e+02, 1.5191726032522695e+02,
          1.0972605853098833e+02, 5.0608419079340173e+01,
          8.9846420255633433e+01, 9.2525542472398840e+01,
          7.2544161030520726e+01, 1.7754530908716808e+02,
          2.0947704986774419e+01, 1.0172750621284757e+02,
          8.8229546645999719e+01 ]
   covs:
      - !!opencv-matrix
         rows: 3
         cols: 3
         dt: d
         data: [ 2.2079812030733157e+02, -4.3320699998025425e+01,
             -1.9152430650766082e+01, -4.3320699998025425e+01,
             4.7825097075470921e+02, 5.7408889987633586e+01,
             -1.9152430650766082e+01, 5.7408889987633600e+01,
             7.8556548914861230e+02 ]
      - !!opencv-matrix
         rows: 3
         cols: 3
         dt: d
         data: [ 3.5699368931049982e+01, -7.1206773401445361e+01,
             1.1716261394590997e+01, -7.1206773401445346e+01,
             1.9037384857204288e+03, -2.5761693923863220e+02,
             1.1716261394590997e+01, -2.5761693923863220e+02,
             1.4758174774942324e+03 ]
      - !!opencv-matrix
         rows: 3
         cols: 3
         dt: d
         data: [ 6.9075816160673696e+02, -1.0395079663296875e+02,
             1.4601626707405742e+01, -1.0395079663296872e+02,
             1.0567154938349133e+03, -2.2288447924173869e+02,
             1.4601626707405746e+01, -2.2288447924173869e+02,
             9.7970976449219722e+02 ]
      - !!opencv-matrix
         rows: 3
         cols: 3
         dt: d
         data: [ 7.5340031802225201e+02, 6.0577927955602172e+02,
             -4.0328687847666089e+02, 6.0577927955602172e+02,
             1.9398802697681219e+03, -3.4685097222725642e+02,
             -4.0328687847666083e+02, -3.4685097222725648e+02,
             1.9327146163405566e+03 ]
      - !!opencv-matrix
         rows: 3
         cols: 3
         dt: d
         data: [ 4.7781998969549093e+01, -4.3985680639221876e+00,
             -3.2438026104978848e+00, -4.3985680639221867e+00,
             1.0371690950653192e+03, -8.6144899210573953e+01,
             -3.2438026104978870e+00, -8.6144899210573953e+01,
             4.7289692665870774e+02 ]
