%YAML:1.0
---
opencv_ml_em:
   format: 3
   training_params:
      nclusters: 8
      cov_mat_type: diagonal
      epsilon: 1.
      iterations: 10
   weights: !!opencv-matrix
      rows: 1
      cols: 8
      dt: d
      data: [ 1.3777094364691533e-01, 1.9158830426691395e-01,
          1.2981337074589910e-01, 1.2410069893971337e-01,
          1.1262249403904115e-01, 7.2535799096609579e-02,
          4.5249147848517871e-02, 1.8631924141326245e-01 ]
   means: !!opencv-matrix
      rows: 8
      cols: 3
      dt: d
      data: [ 1.0295789963148967e+02, 5.5035294863735402e+01,
          4.1542549448345554e+01, 2.1200396360744492e+01,
          8.8053943140316974e+01, 7.6102237042140800e+01,
          2.0906217620467903e+01, 1.5408941088045248e+02,
          6.5913295307658572e+01, 1.0104860262403885e+02,
          4.6427105290343242e+01, 9.8079815890533013e+01,
          1.0651723807388467e+02, 1.1504083029694827e+02,
          4.1878781151588711e+01, 1.0446193866126728e+02,
          1.1876590889079789e+02, 1.3660309308450118e+02,
          2.1344723981991546e+01, 8.5439878303565436e+01,
          1.8622227051388202e+02, 3.1645309566369708e+01,
          3.8777286274451370e+01, 7.8880623103783321e+01 ]
   covs:
      - !!opencv-matrix
         rows: 3
         cols: 3
         dt: d
         data: [ 6.0678772341961883e+02, 0., 0., 0.,
             4.2321578338496153e+02, 0., 0., 0., 2.8010814155143214e+02 ]
      - !!opencv-matrix
         rows: 3
         cols: 3
         dt: d
         data: [ 8.5329069361788271e+01, 0., 0., 0.,
             3.4879763629934342e+02, 0., 0., 0., 7.6433820194694613e+02 ]
      - !!opencv-matrix
         rows: 3
         cols: 3
         dt: d
         data: [ 3.9886739771960315e+01, 0., 0., 0.,
             6.5541000830198391e+02, 0., 0., 0., 4.1177440124808362e+02 ]
      - !!opencv-matrix
         rows: 3
         cols: 3
         dt: d
         data: [ 8.4406651251974029e+02, 0., 0., 0.,
             5.2835607981483156e+02, 0., 0., 0., 4.8135781961763132e+02 ]
      - !!opencv-matrix
         rows: 3
         cols: 3
         dt: d
         data: [ 2.1772547915982904e+02, 0., 0., 0.,
             1.2934943825310643e+03, 0., 0., 0., 5.5161854450925387e+02 ]
      - !!opencv-matrix
         rows: 3
         cols: 3
         dt: d
         data: [ 7.0622884262102886e+01, 0., 0., 0.,
             8.1861886566958412e+02, 0., 0., 0., 1.4946559372247295e+03 ]
      - !!opencv-matrix
         rows: 3
         cols: 3
         dt: d
         data: [ 2.5386031418388151e+02, 0., 0., 0.,
             3.1373408813734668e+03, 0., 0., 0., 1.8691097556997693e+03 ]
      - !!opencv-matrix
         rows: 3
         cols: 3
         dt: d
         data: [ 3.1915818096775808e+02, 0., 0., 0.,
             3.0305142522753539e+02, 0., 0., 0., 7.8331284978554550e+02 ]
