%YAML:1.0
---
opencv_ml_em:
   format: 3
   training_params:
      nclusters: 6
      cov_mat_type: diagonal
      epsilon: 1.
      iterations: 10
   weights: !!opencv-matrix
      rows: 1
      cols: 6
      dt: d
      data: [ 3.2298976875263496e-01, 7.7465232295525183e-02,
          7.2051759652195291e-02, 1.5934958544357619e-01,
          1.4842993827015113e-01, 2.1971371558488670e-01 ]
   means: !!opencv-matrix
      rows: 6
      cols: 3
      dt: d
      data: [ 2.4804074512268127e+01, 7.2718406818404347e+01,
          8.2230815906025271e+01, 1.0109091626324597e+02,
          8.2933714865240447e+01, 1.9991970653746938e+02,
          2.4886776173304348e+01, 1.7851904162128722e+02,
          9.1887008502007134e+01, 1.0403235253191062e+02,
          5.1130041167802950e+01, 9.2532066343653383e+01,
          1.4447635496914302e+01, 1.3461574592111492e+02,
          1.6601280737272759e+02, 2.9758792630504615e+01,
          4.4590128962179776e+01, 1.2174549108377590e+02 ]
   covs:
      - !!opencv-matrix
         rows: 3
         cols: 3
         dt: d
         data: [ 1.1095492685953378e+02, 0., 0., 0.,
             8.4090190661768554e+02, 0., 0., 0., 4.4810103191742519e+02 ]
      - !!opencv-matrix
         rows: 3
         cols: 3
         dt: d
         data: [ 2.0925980386406655e+02, 0., 0., 0.,
             1.5635688414993799e+03, 0., 0., 0., 1.4197315431846498e+03 ]
      - !!opencv-matrix
         rows: 3
         cols: 3
         dt: d
         data: [ 8.5402794825417004e+02, 0., 0., 0.,
             1.2918852260900887e+03, 0., 0., 0., 9.0020401110827549e+02 ]
      - !!opencv-matrix
         rows: 3
         cols: 3
         dt: d
         data: [ 6.2756881156550537e+02, 0., 0., 0.,
             9.4967127214020081e+02, 0., 0., 0., 1.0942308704525569e+03 ]
      - !!opencv-matrix
         rows: 3
         cols: 3
         dt: d
         data: [ 1.8008474322969832e+01, 0., 0., 0.,
             1.0638698668087372e+03, 0., 0., 0., 1.0894867931464996e+03 ]
      - !!opencv-matrix
         rows: 3
         cols: 3
         dt: d
         data: [ 2.9400063501131433e+02, 0., 0., 0.,
             4.1027827002963045e+02, 0., 0., 0., 6.9289525180312910e+02 ]
