%YAML:1.0
---
opencv_ml_em:
   format: 3
   training_params:
      nclusters: 5
      cov_mat_type: diagonal
      epsilon: 1.
      iterations: 10
   weights: !!opencv-matrix
      rows: 1
      cols: 5
      dt: d
      data: [ 1.9864116071931154e-01, 7.7208385969461862e-02,
          3.4178997462866084e-01, 1.1450678853077720e-01,
          2.6785369015366656e-01 ]
   means: !!opencv-matrix
      rows: 5
      cols: 3
      dt: d
      data: [ 1.0736254775042622e-06, 5.2844770676965097e-04,
          5.9910454923834475e+00, 4.6244962274081303e+01,
          6.8723258580437616e+01, 1.7994071216712277e+02,
          2.0797346463546599e+01, 1.1428561263414403e+02,
          1.0269301490891381e+02, 9.5287970847754039e+01,
          6.2902812150678976e+01, 7.7298247894490487e+01,
          2.5088034521224969e+01, 7.0873785328691909e+01,
          1.0026183781283028e+02 ]
   covs:
      - !!opencv-matrix
         rows: 3
         cols: 3
         dt: d
         data: [ 1.6108085927579199e-05, 0., 0., 0.,
             5.2488227992163079e-03, 0., 0., 0., 1.5655002894521080e+00 ]
      - !!opencv-matrix
         rows: 3
         cols: 3
         dt: d
         data: [ 1.3374437086614716e+03, 0., 0., 0.,
             2.4839408100312385e+03, 0., 0., 0., 1.8735868624526995e+03 ]
      - !!opencv-matrix
         rows: 3
         cols: 3
         dt: d
         data: [ 3.6663408747300345e+01, 0., 0., 0.,
             4.1034394049040566e+02, 0., 0., 0., 6.4844141088782919e+02 ]
      - !!opencv-matrix
         rows: 3
         cols: 3
         dt: d
         data: [ 7.6620206020403509e+02, 0., 0., 0.,
             1.4687746099644307e+03, 0., 0., 0., 1.3980273439369851e+03 ]
      - !!opencv-matrix
         rows: 3
         cols: 3
         dt: d
         data: [ 1.1116239650824043e+02, 0., 0., 0.,
             4.7216340945713819e+02, 0., 0., 0., 5.5245721477623533e+02 ]
