%YAML:1.0
---
opencv_ml_em:
   format: 3
   training_params:
      nclusters: 5
      cov_mat_type: generic
      epsilon: 1.0000000000000001e-01
      iterations: 50
   weights: !!opencv-matrix
      rows: 1
      cols: 5
      dt: d
      data: [ 1.8480176388526562e-01, 2.7238174115571862e-01,
          1.4503153290871892e-01, 3.0921360264818326e-01,
          8.8571359401575747e-02 ]
   means: !!opencv-matrix
      rows: 5
      cols: 3
      dt: d
      data: [ 2.0653759807266329e+01, 8.9516983698297324e+01,
          1.5832016657027063e+02, 2.2250661215068643e+01,
          9.9944438465801085e+01, 9.3622078410010303e+01,
          1.0031330147782364e+02, 5.3212067926850416e+01,
          8.5085764840120703e+01, 2.9481199866250712e+01,
          4.6971576793837961e+01, 9.9127140657339893e+01,
          8.3277298306408909e+01, 5.7497315534626154e+01,
          1.9082069541534005e+02 ]
   covs:
      - !!opencv-matrix
         rows: 3
         cols: 3
         dt: d
         data: [ 5.3131443921672300e+01, -1.6110615674401402e+01,
             -2.1607671424826982e+01, -1.6110615674401366e+01,
             7.8752518161024318e+02, 4.1326088316463478e+02,
             -2.1607671424827004e+01, 4.1326088316463478e+02,
             1.1253649394023519e+03 ]
      - !!opencv-matrix
         rows: 3
         cols: 3
         dt: d
         data: [ 6.5373836854622198e+01, 5.7933254149494289e+00,
             -2.9852893196523297e+01, 5.7933254149494244e+00,
             5.5060107891765836e+02, -9.3623916859624714e+01,
             -2.9852893196523297e+01, -9.3623916859624728e+01,
             4.7298556397649202e+02 ]
      - !!opencv-matrix
         rows: 3
         cols: 3
         dt: d
         data: [ 4.2660258319609670e+02, -6.7111946141297256e+00,
             -2.9171518332273191e+01, -6.7111946141297301e+00,
             1.0874084236067133e+03, -2.2431744640983388e+02,
             -2.9171518332273191e+01, -2.2431744640983388e+02,
             9.9141015763972780e+02 ]
      - !!opencv-matrix
         rows: 3
         cols: 3
         dt: d
         data: [ 2.0614112290106465e+02, -6.8200467194443107e+01,
             7.0825694330908995e+00, -6.8200467194443107e+01,
             3.7870074956407694e+02, 1.2685224125714413e+01,
             7.0825694330909013e+00, 1.2685224125714418e+01,
             7.4724395088045446e+02 ]
      - !!opencv-matrix
         rows: 3
         cols: 3
         dt: d
         data: [ 1.3839835146376970e+03, 9.3797113125230999e+02,
             -6.0575691955527884e+02, 9.3797113125230999e+02,
             2.1480807070447813e+03, -2.1381226388740419e+02,
             -6.0575691955527884e+02, -2.1381226388740419e+02,
             1.6693809518039400e+03 ]
