%YAML:1.0
---
opencv_ml_em:
   format: 3
   training_params:
      nclusters: 5
      cov_mat_type: generic
      epsilon: 1.0000000000000000e-02
   weights: !!opencv-matrix
      rows: 1
      cols: 5
      dt: d
      data: [ 5.0317045711677763e-02, 1.6038100791539361e-01,
          2.1190449663326444e-01, 2.2957109292836123e-01,
          3.4782635681126228e-01 ]
   means: !!opencv-matrix
      rows: 5
      cols: 3
      dt: d
      data: [ 6.2268061280812375e+01, 9.1813781464199892e+01,
          2.0010103090140586e+02, 2.0392379629096766e+01,
          1.4828328482598741e+02, 8.8514631813759095e+01,
          1.0287655622629636e+02, 7.1246686516926758e+01,
          6.8559276147410458e+01, 3.3670545157372999e+01,
          4.8865625301158410e+01, 7.0499363313926523e+01,
          2.3388351048014712e+01, 1.0208357842512089e+02,
          7.7696360503895733e+01 ]
   covs:
      - !!opencv-matrix
         rows: 3
         cols: 3
         dt: d
         data: [ 1.8571569718087840e+03, 8.2979442679998090e+02,
             -1.1716212317378772e+03, 8.2979442679998112e+02,
             4.6547067282844846e+03, -1.3271899028077323e+03,
             -1.1716212317378772e+03, -1.3271899028077326e+03,
             2.2885691125680778e+03 ]
      - !!opencv-matrix
         rows: 3
         cols: 3
         dt: d
         data: [ 3.0160108453930945e+01, -2.3113347160615643e+01,
             -1.2693332371310598e+01, -2.3113347160615643e+01,
             5.5098449081992169e+02, -5.0498266182415726e+01,
             -1.2693332371310598e+01, -5.0498266182415733e+01,
             5.2201403373467656e+02 ]
      - !!opencv-matrix
         rows: 3
         cols: 3
         dt: d
         data: [ 4.8651537441887024e+02, -1.6816737691946366e+02,
             -6.6330035512768205e+01, -1.6816737691946366e+02,
             1.2374837147494184e+03, -8.6715157889860228e-01,
             -6.6330035512768234e+01, -8.6715157889867545e-01,
             8.6675329854061749e+02 ]
      - !!opencv-matrix
         rows: 3
         cols: 3
         dt: d
         data: [ 3.4944848741457150e+02, -3.5431934965248544e+01,
             2.3443075150918052e+01, -3.5431934965248544e+01,
             3.8845586433543548e+02, -1.9684396808043765e+01,
             2.3443075150918052e+01, -1.9684396808043765e+01,
             5.0060376238142362e+02 ]
      - !!opencv-matrix
         rows: 3
         cols: 3
         dt: d
         data: [ 5.3225610179471474e+01, -3.0742314283392354e+00,
             5.5174305784097468e+00, -3.0742314283392362e+00,
             3.4861519758841939e+02, 2.1160516035437169e+01,
             5.5174305784097468e+00, 2.1160516035437169e+01,
             2.8682470188842666e+02 ]
