%YAML:1.0
---
opencv_ml_em:
   format: 3
   training_params:
      nclusters: 5
      cov_mat_type: generic
      epsilon: 1.0000000000000000e-02
   weights: !!opencv-matrix
      rows: 1
      cols: 5
      dt: d
      data: [ 2.8908508495033336e-01, 8.2751443981262607e-02,
          2.3412412533578267e-01, 2.2730711119888333e-01,
          1.6673223453205124e-01 ]
   means: !!opencv-matrix
      rows: 5
      cols: 3
      dt: d
      data: [ 2.2396407205422634e+01, 9.5754262374420222e+01,
          9.6677737280834222e+01, 8.3325862990710363e+01,
          5.1514141121343627e+01, 1.9624847466876255e+02,
          3.5242727330747989e+01, 4.3574135591107712e+01,
          1.0201193582445626e+02, 2.1320171310359424e+01,
          8.4174655381492002e+01, 1.5440632601317981e+02,
          1.0245537175554078e+02, 5.9404641684659282e+01,
          8.9572878085488412e+01 ]
   covs:
      - !!opencv-matrix
         rows: 3
         cols: 3
         dt: d
         data: [ 4.3957614911356465e+01, -1.2348432239022779e+01,
             -1.9878023140733422e+01, -1.2348432239022779e+01,
             5.3543909327322660e+02, -1.5676984665440776e+02,
             -1.9878023140733397e+01, -1.5676984665440776e+02,
             4.7490606285531288e+02 ]
      - !!opencv-matrix
         rows: 3
         cols: 3
         dt: d
         data: [ 1.2859072940618551e+03, 7.1771302064218764e+02,
             -6.2472684992175778e+02, 7.1771302064218764e+02,
             1.4465704391359361e+03, -1.9171398527022365e+02,
             -6.2472684992175778e+02, -1.9171398527022370e+02,
             1.6916269429940348e+03 ]
      - !!opencv-matrix
         rows: 3
         cols: 3
         dt: d
         data: [ 2.9006856136072889e+02, -5.2246403495993988e+01,
             3.6235482371693848e+01, -5.2246403495993995e+01,
             3.8591353951503015e+02, 2.7379810422529470e+01,
             3.6235482371693848e+01, 2.7379810422529470e+01,
             8.3749925263752891e+02 ]
      - !!opencv-matrix
         rows: 3
         cols: 3
         dt: d
         data: [ 3.4887715384202906e+01, -3.8539696061585161e+01,
             -2.2806720048821838e+01, -3.8539696061585161e+01,
             6.3581309734895956e+02, 3.1821055408988929e+02,
             -2.2806720048821830e+01, 3.1821055408988929e+02,
             1.1131327397930734e+03 ]
      - !!opencv-matrix
         rows: 3
         cols: 3
         dt: d
         data: [ 3.8343362099582555e+02, -7.5669218102204198e+01,
             -5.3810366484013265e+01, -7.5669218102204226e+01,
             1.5213185848553878e+03, -1.9988356992314058e+02,
             -5.3810366484013272e+01, -1.9988356992314036e+02,
             1.1300342434744073e+03 ]
